digraph Tree {
node [shape=box, style="filled, rounded", color="black", fontname=helvetica] ;
edge [fontname=helvetica] ;
0 [label="petal width (cm) <= 0.7\ngini = 0.67\nsamples = 91\nvalue = [50, 54, 46]\nclass = versicolor", fillcolor="#f7fefa"] ;
1 [label="gini = 0.0\nsamples = 30\nvalue = [50, 0, 0]\nclass = setosa", fillcolor="#e58139"] ;
0 -> 1 [labeldistance=2.5, labelangle=45, headlabel="True"] ;
2 [label="petal width (cm) <= 1.7\ngini = 0.5\nsamples = 61\nvalue = [0, 54, 46]\nclass = versicolor", fillcolor="#e2fbec"] ;
0 -> 2 [labeldistance=2.5, labelangle=-45, headlabel="False"] ;
3 [label="sepal length (cm) <= 6.25\ngini = 0.04\nsamples = 34\nvalue = [0, 50, 1]\nclass = versicolor", fillcolor="#3de684"] ;
2 -> 3 ;
4 [label="gini = 0.0\nsamples = 24\nvalue = [0, 35, 0]\nclass = versicolor", fillcolor="#39e581"] ;
3 -> 4 ;
5 [label="sepal width (cm) <= 2.85\ngini = 0.12\nsamples = 10\nvalue = [0, 15, 1]\nclass = versicolor", fillcolor="#46e789"] ;
3 -> 5 ;
6 [label="petal length (cm) <= 4.85\ngini = 0.38\nsamples = 3\nvalue = [0, 3, 1]\nclass = versicolor", fillcolor="#7beeab"] ;
5 -> 6 ;
7 [label="gini = 0.0\nsamples = 2\nvalue = [0, 3, 0]\nclass = versicolor", fillcolor="#39e581"] ;
6 -> 7 ;
8 [label="gini = 0.0\nsamples = 1\nvalue = [0, 0, 1]\nclass = virginica", fillcolor="#8139e5"] ;
6 -> 8 ;
9 [label="gini = 0.0\nsamples = 7\nvalue = [0, 12, 0]\nclass = versicolor", fillcolor="#39e581"] ;
5 -> 9 ;
10 [label="petal length (cm) <= 4.85\ngini = 0.15\nsamples = 27\nvalue = [0, 4, 45]\nclass = virginica", fillcolor="#8c4be7"] ;
2 -> 10 ;
11 [label="sepal width (cm) <= 3.1\ngini = 0.49\nsamples = 3\nvalue = [0, 4, 3]\nclass = versicolor", fillcolor="#cef8e0"] ;
10 -> 11 ;
12 [label="gini = 0.0\nsamples = 2\nvalue = [0, 0, 3]\nclass = virginica", fillcolor="#8139e5"] ;
11 -> 12 ;
13 [label="gini = 0.0\nsamples = 1\nvalue = [0, 4, 0]\nclass = versicolor", fillcolor="#39e581"] ;
11 -> 13 ;
14 [label="gini = 0.0\nsamples = 24\nvalue = [0, 0, 42]\nclass = virginica", fillcolor="#8139e5"] ;
10 -> 14 ;
}